45 64
1012 -0.20995739 0.29413357 0.36470079 -0.075418442 0.50001913 -0.32340872 0.45644635 -0.38523692 0.25484633 0.72566903 -0.32412282 -0.037462432 0.1304573 -0.014315199 0.4005948 -0.34594381 0.12218662 -0.64343154 -0.21369731 0.52667469 -0.36908129 -0.042562038 0.051845383 0.11965133 0.50787002 0.15195614 0.11772901 -0.0066770739 0.3821502 -0.12321443 -0.29893008 0.10222655 0.3685818 -0.22349012 0.33872336 -0.19741061 0.1836466 -0.1520955 -0.22524403 0.11308314 0.1464158 -0.33488908 0.22385851 -0.17211126 -0.074777633 0.16314168 0.23837656 0.15039273 -0.11597157 0.62385118 -0.16190693 0.070860334 -0.2243282 -0.57570964 -0.029539607 0.59402984 -0.0597407 -0.37352589 -0.43349868 0.25400192 0.10259319 -0.52059078 0.29829025 -0.32440236
1013 -0.27940494 0.37841061 0.4071081 -0.060811829 0.41044447 -0.29822251 0.35052601 -0.30151346 0.20203204 0.68677193 -0.35146189 -0.12274475 0.18951952 0.068795726 0.45523939 -0.32980379 -0.01943613 -0.5221175 -0.22427811 0.46623856 -0.43730792 0.012424921 0.076451108 0.14692774 0.44200027 0.1179589 0.185472 0.010096421 0.39162463 -0.13052133 -0.26052114 0.07021042 0.52805966 -0.25390434 0.4803918 -0.28516102 0.29347721 -0.1585951 -0.11111686 0.12049714 0.030835483 -0.27526677 0.21510577 -0.092508741 -0.042834427 0.12830012 0.1923456 0.10981613 -0.11252227 0.49202016 -0.047083918 -0.014855997 -0.2658177 -0.53213298 0.044449247 0.43995067 0.0045281909 -0.35943329 -0.5089134 0.31895056 0.06212512 -0.44927374 0.19907704 -0.45189673
1003 -0.27992809 0.428471 0.47289529 -0.079218648 0.44498706 -0.36098993 0.31371289 -0.25858945 0.1167559 0.5896647 -0.38439491 -0.1074861 0.21990167 0.13583535 0.42259377 -0.30000183 0.026142545 -0.49232581 -0.23126388 0.52131844 -0.34784451 0.10229111 0.031311695 0.11054728 0.3328703 0.092997856 0.16254343 0.0016404081 0.40830898 -0.010582605 -0.12525663 -0.019407464 0.37162822 -0.2040157 0.41260743 -0.26203594 0.26741624 -0.10971827 -0.090794764 0.16186148 0.0082317907 -0.22643681 0.1692526 -0.038431257 0.033407718 0.1506907 0.20342822 0.023954444 -0.055863384 0.45715618 -0.067869864 -0.094285041 -0.348609 -0.59473222 0.031478312 0.50811565 0.05017348 -0.35102487 -0.55663878 0.37239328 0.031639058 -0.44120398 0.20877114 -0.50490844
1000 -0.19349472 0.37291941 0.38218039 -0.090918861 0.44274148 -0.27647918 0.35624102 -0.30555499 0.20051602 0.67485577 -0.31219253 -0.019341994 0.22774015 0.078672566 0.36029667 -0.28983748 0.11171265 -0.48778662 -0.1115514 0.48576111 -0.35669336 0.038370043 0.14452624 0.19894731 0.44292176 0.093981445 0.1117513 0.002194958 0.42457995 -0.040999435 -0.17534027 0.0073802331 0.45052454 -0.27624339 0.43354055 -0.32171318 0.15637791 -0.20031482 -0.1529914 0.09760955 0.11254526 -0.24524699 0.23116477 -0.19605583 -0.079405114 0.15443781 0.10045577 0.026345758 -0.18441884 0.63229644 -0.091355897 -0.014092172 -0.38012293 -0.61356616 -0.087373845 0.51689452 0.07533478 -0.50434983 -0.45060197 0.27765569 0.061745767 -0.56194407 0.2027296 -0.43849757
1014 -0.20951124 0.32512677 0.31268892 -0.056878354 0.52604496 -0.31381103 0.30584264 -0.28071326 0.2050149 0.74796784 -0.39889577 -0.047915615 0.16459748 0.037651829 0.33624083 -0.38679141 0.096476071 -0.57730275 -0.17459008 0.50693947 -0.38661101 0.053551689 0.094104372 0.17372015 0.47383729 0.17584801 0.19900124 0.040466595 0.54332656 -0.071292154 -0.19018155 0.041008368 0.38402244 -0.25216776 0.36299288 -0.32849595 0.24833705 -0.20102942 -0.17890927 0.17661051 0.10636101 -0.25633666 0.11951528 -0.071813032 -0.050539147 0.10541469 0.21176699 0.096034259 -0.084223516 0.53299409 -0.040168621 -0.038969722 -0.32687423 -0.55424422 -0.0067674555 0.48113948 0.030234367 -0.33294615 -0.43388188 0.23535058 0.07322485 -0.43996543 0.16642594 -0.37142417
1001 -0.2873714 0.43004888 0.47121483 -0.093796521 0.46619779 -0.33624667 0.37583148 -0.37349078 0.1822408 0.67239791 -0.34442985 -0.015536885 0.11767587 0.067065828 0.41753879 -0.26926774 0.027118901 -0.56378943 -0.20501539 0.49651396 -0.34761801 0.021774821 0.082490295 0.12625122 0.39184409 0.04821888 0.18304263 0.02728004 0.39812878 -0.068810299 -0.15998207 0.049039681 0.40934929 -0.23432367 0.4470585 -0.21755393 0.16252907 -0.062684521 -0.18724114 -0.0091211582 0.020799764 -0.22654651 0.096577488 -0.08403486 -0.064642079 0.072256729 0.13794969 -0.023953758 -0.12408616 0.52959538 -0.065769263 0.048779458 -0.23416872 -0.54538226 -0.068912782 0.49766287 0.033040345 -0.46664989 -0.51136965 0.35988921 0.088627174 -0.58628577 0.25749871 -0.36794138
1002 -0.23407061 0.37026185 0.42938814 -0.10353604 0.44440761 -0.35260707 0.38432446 -0.3162064 0.14080767 0.59590006 -0.34740725 -0.05781801 0.16910687 0.046275381 0.43656367 -0.32939658 0.10147844 -0.56961983 -0.17214543 0.48369655 -0.38544333 0.082057878 0.023088213 0.16845891 0.42057323 0.16768819 0.13736014 -0.0045449422 0.37616649 -0.061304271 -0.21719612 0.027085569 0.35412246 -0.22836557 0.32712749 -0.26809096 0.19919686 -0.12400873 -0.15897194 0.077755548 0.12140013 -0.27363157 0.17764214 -0.13059054 -0.056430738 0.19632736 0.19874191 0.10824916 -0.078523912 0.63825154 -0.11123922 0.026916048 -0.31578434 -0.62048757 -0.040793002 0.54949903 -0.03033901 -0.45143938 -0.54109925 0.37864959 0.074981444 -0.53817487 0.27040243 -0.43925792
13 -0.38399753 0.012341319 0.030743184 -0.53837043 -0.067554042 -0.062723771 0.31625456 -0.19513424 0.09938243 0.75898445 -0.18327466 0.46421114 0.02935358 0.014487145 0.5062393 0.75056863 -0.4141171 0.020132449 -0.53836614 0.68244314 -0.95873159 -0.043318056 0.2176131 0.47779012 -0.30828542 0.10346237 0.36292028 0.55879349 0.4672327 -0.13165703 0.12843123 0.55910188 0.2654835 0.17078443 -0.21555859 -0.43210182 -0.19358538 -0.02994119 -0.21877997 -0.17623267 0.56722212 -0.076402687 -0.06644582 -0.43409795 -0.031293295 -0.15046625 -0.39742371 0.17694381 0.010236008 0.96432775 -0.34686649 0.25472534 0.0035371161 -0.30553538 -0.21227895 0.48880515 -0.27754381 -0.33763674 -0.31974524 -0.060524054 0.29661816 -0.47414505 0.10365065 0.20202515
1011 -0.26352525 0.3548277 0.43798792 -0.083825231 0.54684365 -0.35519487 0.41846308 -0.42987865 0.17559636 0.70919752 -0.32162738 -0.028303012 0.14262044 0.12230997 0.47965497 -0.37777811 0.016470725 -0.64513296 -0.19434689 0.51338577 -0.30223688 0.00031296149 0.013021678 0.083439618 0.41473064 0.085962534 0.17077865 -0.064338267 0.3448413 -0.070106566 -0.20225736 0.069073386 0.4433966 -0.21439318 0.42273709 -0.21254887 0.19183929 -0.12044694 -0.13133574 0.053865541 0.029943964 -0.29458421 0.15503739 -0.10282209 -0.061887842 0.090047993 0.14951572 0.063511893 -0.0474867 0.36093634 -0.085926466 0.048244275 -0.19480884 -0.48346877 0.01804881 0.4615559 -0.060424723 -0.38310513 -0.46444604 0.25590119 0.080613479 -0.40375718 0.25084913 -0.36520213
16 -0.43591198 0.0021358917 -0.0031243891 -0.55984151 -0.0024034167 -0.044093985 0.21367306 -0.16649972 0.057550941 0.71999079 -0.19197026 0.56779665 0.052649457 -0.016293392 0.54146039 0.60036659 -0.38704583 -0.052054897 -0.57023793 0.55756378 -0.7201491 -0.033879027 0.071350798 0.39533544 -0.30870691 0.061768219 0.37008333 0.60293037 0.35685349 -0.20992546 0.19936502 0.59372282 0.14027034 0.062845066 -0.36474743 -0.38248011 -0.2145689 0.012951922 -0.23044387 -0.20264412 0.72493547 -0.022533044 -0.26119691 -0.33133382 -0.065718107 -0.17870146 -0.42649329 0.23752761 0.12023396 1.0459507 -0.39280617 0.25653097 -0.043539468 -0.40594399 -0.29375252 0.5497663 -0.39393166 -0.4312754 -0.3489753 0.044730522 0.31283742 -0.59879637 0.083455391 0.293026
17 -0.27288654 -0.091994084 0.042558093 -0.42081553 0.20826143 -0.22640428 0.098439641 0.14119713 -0.16891551 0.88945764 -0.17103626 -0.023567131 0.17991781 0.55222887 0.43791339 0.41502148 -0.29355913 -0.17950797 -0.71424651 1.0019619 -0.50192767 0.00078071118 -0.15918688 0.16615498 -0.73322701 -0.31690869 0.28073066 0.72077692 0.08896032 0.283292 0.33479851 0.62747681 0.26681289 0.39505842 0.051311612 -0.24933323 0.27130505 -0.07370127 0.20869718 0.31302476 0.44001523 -0.37874013 0.02722487 -0.039466992 0.23693383 0.053812243 0.26986164 0.19000016 0.36237133 0.62121439 -0.19852667 -0.28803062 -0.1661552 -0.32610512 0.064376578 0.7724036 -0.12109913 0.53287607 -0.69402349 0.053965084 0.45994863 -0.085439384 0.17148118 -0.38747409
22 -0.53627455 -0.27951255 0.081747614 -0.45641187 -0.062074389 0.10657486 -0.18048705 -0.15947619 -0.35426092 0.23734507 0.48278838 0.28592747 -0.25732452 0.21891791 0.19796774 -0.19680099 -0.46918646 -0.35655731 0.12419085 0.13630794 0.069722019 0.061267599 0.14644086 0.04927722 0.26230347 0.20917121 0.49770209 -0.12401546 0.20443572 -0.062456209 -0.1967279 0.075455189 -0.27740538 -0.11975648 0.025424967 -0.42495659 -0.15693857 0.28097263 0.2161696 -0.12468425 0.081691392 -0.082898326 0.20737934 -0.16645986 0.63071132 0.33960906 0.063619122 -0.35336873 -0.26901191 0.32376835 -0.33750686 -0.36557883 -0.029720962 0.014289929 -0.26762086 0.15866931 0.093015663 0.34915954 -0.15244378 0.20728797 -0.33591032 -0.31527004 0.29665947 -0.22375347
12 -0.51361126 -0.065530844 0.060148161 -0.63125092 0.1632113 -0.14695325 0.093464039 0.3024798 -0.15664756 0.94074434 -0.020009676 -0.03107943 0.14186284 0.68842667 0.44109425 0.54748398 -0.37647727 -0.11434076 -0.72162783 1.037143 -0.32709134 -0.064727813 -0.14742234 0.16309083 -0.55139804 -0.25424632 0.10235443 0.65433735 0.0049591181 0.14963919 0.27353248 0.56156582 0.36309832 0.38455784 0.13362972 -0.30682582 0.30005988 -0.19640653 0.14133103 0.40492845 0.57983053 -0.38968754 0.029975038 -0.14492878 0.111646 0.075900808 0.25524199 0.32906404 0.43370065 0.80377817 -0.26191685 -0.20550248 -0.093501687 -0.27057558 0.19294871 0.66361272 -0.056657676 0.51259923 -0.6416285 -0.0076529318 0.46305156 0.0025896539 0.061634332 -0.2698825
21 -0.61986345 -0.26808721 0.089310117 -0.52217162 -0.082116999 0.055574406 -0.13031574 -0.096190982 -0.34341726 0.26692843 0.39174643 0.27380949 -0.20261629 0.22260784 0.17997156 -0.27125537 -0.40116218 -0.40834549 0.010596397 0.1668724 -0.014292109 0.071750946 0.13947667 0.048140731 0.14674576 0.17673655 0.47102836 -0.078792587 0.22148119 -0.084621891 -0.17771523 0.046194501 -0.253849 -0.049476348 0.057200409 -0.45525992 -0.083765127 0.28301406 0.23853789 -0.13315377 0.079004906 -0.1258795 0.24849525 -0.092608251 0.75715733 0.38010776 0.1055197 -0.38094476 -0.28200901 0.36820152 -0.31241336 -0.36128947 0.058657143 0.071246192 -0.26247525 0.077972747 0.15625975 0.37456095 -0.14921977 0.22819032 -0.33252335 -0.29161605 0.3107293 -0.19801424
2 -0.52745563 -0.23696992 0.065067135 -0.41998544 -0.019752344 0.086122729 -0.18986203 -0.15556301 -0.28610131 0.2570549 0.3977415 0.25258237 -0.24537235 0.23564449 0.1859449 -0.20910715 -0.40838653 -0.33429873 0.066466309 0.16319601 0.10082478 0.068837315 0.10443854 0.037322268 0.27289364 0.161887 0.49459407 -0.1175271 0.17156768 -0.047870446 -0.1537412 0.066044673 -0.2405549 -0.10382394 0.063490614 -0.44296393 -0.11037581 0.25982401 0.19499716 -0.12748294 0.06208761 -0.11920179 0.21059173 -0.17500079 0.62208521 0.3049058 0.073608868 -0.34150994 -0.25010961 0.31266221 -0.34379354 -0.37825081 -0.0020481178 0.049794145 -0.26051915 0.18780483 0.11755593 0.45386285 -0.20161048 0.22650009 -0.42452946 -0.32225588 0.34401298 -0.27901503
4 -0.53052336 -0.34627238 -0.011333633 -0.52234507 -0.061027877 0.010141386 -0.10857688 -0.12763883 -0.29310712 0.21639624 0.38361531 0.2444441 -0.21742012 0.23346792 0.18415837 -0.15676311 -0.4301807 -0.33755639 -0.0080277817 0.16731599 -0.026557351 0.062814832 0.12923467 0.060283441 0.18605837 0.10741311 0.52185106 -0.027578792 0.16814156 -0.047332246 -0.16942117 0.095126748 -0.26408917 -0.069566637 0.017301599 -0.40478116 -0.10620216 0.29469636 0.2030255 -0.12232094 0.089219876 -0.15816697 0.21902496 -0.12345576 0.73348075 0.32693318 0.10866355 -0.46428913 -0.25872424 0.37675294 -0.24150516 -0.34120494 -0.002363214 0.018695729 -0.28396693 0.13769895 0.16273808 0.38240007 -0.19556613 0.24979044 -0.28077081 -0.27527156 0.30735743 -0.17247535
3 -0.56426603 -0.21421286 0.07796637 -0.52784032 -0.069220662 0.15099579 -0.11498915 -0.032420956 -0.27788988 0.2727648 0.41059968 0.29686555 -0.2331112 0.23922071 0.098688439 -0.097277313 -0.46001846 -0.46393886 0.1459617 0.26115206 0.015011001 0.041678224 0.12176953 0.08434815 0.14720857 0.18875323 0.45360288 -0.029956013 0.23603339 -0.012477614 -0.094591416 0.11136411 -0.2897523 -0.089742251 0.011298085 -0.42293996 -0.10246262 0.23657969 0.20827712 -0.17963351 0.089161642 -0.092553094 0.19525132 -0.0077018002 0.63407367 0.34314698 0.089578144 -0.23840253 -0.14551608 0.34185418 -0.33512166 -0.36686096 0.033118967 0.19341457 -0.22359505 0.18439749 0.15311784 0.39530727 -0.12991142 0.18944311 -0.37937146 -0.3165879 0.36567312 -0.20980339
27 -0.58466166 -0.26114696 0.017663924 -0.52665979 -0.049332105 0.10133102 -0.12224731 -0.094155356 -0.25697881 0.30865365 0.41521624 0.31241328 -0.31377295 0.21599628 0.12479894 -0.20748085 -0.47021648 -0.51033384 0.046632491 0.24007745 0.087898463 0.071781591 0.16238169 0.045841601 0.25877646 0.16059314 0.59303451 -0.050598774 0.23574005 -0.035936147 -0.13979875 0.067871585 -0.30210114 -0.072133362 0.030072115 -0.43815827 -0.081157014 0.25709063 0.18322439 -0.17116831 0.045652363 -0.082109004 0.11606873 -0.033924151 0.64856297 0.30231628 0.11039716 -0.34966674 -0.22840028 0.30755898 -0.23551013 -0.31376544 0.041007604 0.10062428 -0.26119265 0.1339798 0.13449892 0.36291474 -0.12018614 0.21734866 -0.33307958 -0.27496114 0.30292311 -0.15014653
29 -0.61925447 -0.29010341 0.014552786 -0.51177603 -0.050777949 0.058969282 -0.10206426 -0.073929332 -0.27213171 0.20240565 0.40092307 0.23952968 -0.24909262 0.26483384 0.14155862 -0.16730827 -0.46937597 -0.42157063 0.024300845 0.15953439 0.030089529 0.083545454 0.12643237 0.043018322 0.21218751 0.16162346 0.64861369 -0.084348597 0.23578675 -0.064577945 -0.16933163 0.10828395 -0.22441345 -0.044692926 0.039753012 -0.42491654 -0.071679302 0.20389265 0.18828264 -0.099473327 0.06940072 -0.13807285 0.20556772 -0.10265128 0.66392976 0.31560189 0.061317626 -0.29800758 -0.18478523 0.30458024 -0.26040533 -0.2657744 0.044758689 0.11134652 -0.25205249 0.16739514 0.10919581 0.38076624 -0.12999345 0.15899129 -0.34120327 -0.25063935 0.30185661 -0.15746306
7 -0.51801044 -0.22901498 0.023884885 -0.5021525 -0.074399471 0.057764497 -0.086256012 -0.11861471 -0.33071986 0.2405318 0.43490165 0.27989322 -0.19280629 0.21309491 0.17584966 -0.25359926 -0.43208376 -0.42351168 0.031053513 0.12853101 0.0080085471 0.042695098 0.13450524 0.076918855 0.20977636 0.14215964 0.52129966 -0.052608624 0.23369922 -0.075887091 -0.16605455 0.099818319 -0.18067993 -0.043859769 0.0014431857 -0.33142933 -0.15607829 0.26604766 0.22224875 -0.11076248 0.10573623 -0.15001719 0.248245 -0.090679072 0.67025584 0.33447021 0.078539751 -0.38181958 -0.26420924 0.33702731 -0.25212729 -0.32484606 0.042217713 0.074859343 -0.34619188 0.11335659 0.19023672 0.35667175 -0.10441687 0.25213531 -0.34315488 -0.31457803 0.32690912 -0.14164792
8 -0.58258629 -0.27432543 0.024197929 -0.53533334 -0.038782164 0.034692068 -0.068467446 -0.1113148 -0.32706118 0.28992626 0.43302795 0.27714971 -0.22824761 0.25551438 0.16431138 -0.2651369 -0.45657048 -0.47941524 0.015314989 0.18932517 0.047548864 0.086139038 0.1565655 0.05418317 0.24023478 0.17557016 0.63320208 -0.066840187 0.29209092 -0.038120601 -0.16297206 0.079555668 -0.22748381 -0.047145225 0.043257415 -0.42390817 -0.12857032 0.21750703 0.1860072 -0.091342226 0.056503795 -0.13048038 0.20458141 -0.044905771 0.70102638 0.30478522 0.090992279 -0.37903991 -0.23983574 0.29984096 -0.2219851 -0.3166846 0.024592832 0.10614162 -0.29806846 0.10090319 0.15624064 0.31993228 -0.070178904 0.19475292 -0.31152821 -0.20604566 0.23779641 -0.11790431
24 -0.52746379 -0.23726936 0.054381657 -0.43649951 -0.028086355 0.092335343 -0.14401029 -0.13520902 -0.28982195 0.22581507 0.42834917 0.24319753 -0.26008043 0.26144463 0.18962502 -0.17137377 -0.4373931 -0.36662129 0.071738519 0.16681723 0.029770847 0.050217189 0.11431247 0.062338833 0.26521793 0.14548498 0.53187209 -0.10541607 0.19624001 -0.042920087 -0.14758395 0.089963652 -0.27437615 -0.10643173 0.023567889 -0.46597138 -0.12025665 0.29899094 0.24157788 -0.16540401 0.055558197 -0.16000599 0.26870984 -0.14312534 0.77300853 0.38335681 0.094988711 -0.39107931 -0.27852061 0.35689867 -0.33492422 -0.4013325 0.0098594315 0.039828811 -0.229903 0.18332405 0.11358401 0.35583472 -0.17348173 0.20019409 -0.35320699 -0.26371974 0.32855338 -0.20662944
25 -0.42835423 -0.19494385 -0.017356534 -0.41419429 -0.13682106 0.12609355 -0.20151253 -0.077816926 -0.34838894 0.3046197 0.47388858 0.32727629 -0.28216439 0.18233912 0.16219327 -0.24128126 -0.53180224 -0.4983995 0.0070797489 0.18368275 0.033171456 0.073900603 0.14632484 0.09016449 0.22724095 0.14188719 0.55423194 -0.040238332 0.23858379 -0.10507301 -0.16333774 0.07652764 -0.21926108 -0.017602354 -0.038617902 -0.3848139 -0.10713921 0.26936674 0.20627019 -0.11590369 0.10505681 -0.12508558 0.16999781 -0.11085889 0.64862549 0.31552175 0.093094915 -0.36102292 -0.24205238 0.35038739 -0.22723548 -0.30564758 0.039263111 0.016612263 -0.27337715 0.11343352 0.12852795 0.36663589 -0.13176554 0.23904012 -0.30845734 -0.34077448 0.31670347 -0.10015989
5 -0.51888615 -0.3134408 -0.058355931 -0.51949078 -0.071355917 0.04528537 -0.049849745 -0.12409755 -0.29828689 0.19145232 0.44163391 0.2573384 -0.21100414 0.21802156 0.15819199 -0.23744006 -0.37942439 -0.35537261 -0.014431139 0.094550908 0.028976647 0.040092427 0.1146127 0.046426047 0.24542445 0.11802302 0.60259533 -0.015098105 0.20731367 -0.052958447 -0.17013206 0.15991344 -0.18889107 -0.040127255 0.037957706 -0.39428815 -0.15041293 0.26106575 0.24742921 -0.10797585 0.11464959 -0.17528558 0.23312545 -0.084414825 0.72418272 0.32066071 0.092484467 -0.40028983 -0.27690014 0.3935419 -0.25334436 -0.3523213 0.022719648 0.051200099 -0.36949167 0.18555006 0.15743649 0.38465068 -0.14112343 0.25201932 -0.30529213 -0.27887791 0.31690311 -0.17538232
26 -0.52466464 -0.23218095 -0.0080607366 -0.51557988 -0.049793132 0.11089297 -0.017282337 -0.13254055 -0.21065274 0.23146284 0.4500083 0.20501059 -0.2014713 0.28295973 0.17901091 -0.091740191 -0.43658713 -0.29081103 0.15217997 0.16835625 0.051189266 0.0043507637 0.10179504 0.10052053 0.26678303 0.15606557 0.56470639 -0.048592601 0.18983564 0.023577923 -0.13533123 0.16549924 -0.2430426 -0.11546256 0.0027634401 -0.42492482 -0.11830783 0.2216696 0.2748546 -0.14387558 0.087550379 -0.13730597 0.27005887 -0.077672578 0.55813545 0.3041355 0.074445806 -0.23774327 -0.18875068 0.23914763 -0.26801914 -0.37704581 -0.027543213 0.12609608 -0.29969129 0.23635906 0.1436456 0.45092455 -0.12523505 0.16608657 -0.39935631 -0.26468691 0.37267914 -0.2890974
6 -0.40072903 -0.20820072 0.0048906039 -0.36388734 -0.051072124 0.065950528 -0.19114374 -0.14224632 -0.36583096 0.29018927 0.45471197 0.28347245 -0.24510337 0.24223608 0.20731866 -0.27110642 -0.4512648 -0.41712901 0.0060636965 0.15886351 0.057078633 0.073337398 0.099303715 0.081095435 0.26929748 0.11165858 0.52300769 -0.077003598 0.21004114 -0.080022864 -0.14549632 0.10830779 -0.23942855 -0.073366247 0.043645222 -0.44589248 -0.13595676 0.24806502 0.17933337 -0.10265686 0.069321804 -0.17872825 0.23796652 -0.14585909 0.62743551 0.2902683 0.091916159 -0.36168203 -0.24214548 0.35702655 -0.26851097 -0.35192746 0.041410815 0.06775175 -0.27600339 0.14727716 0.15888001 0.37203422 -0.14856245 0.22904719 -0.33861196 -0.27644804 0.27596688 -0.17698911
28 -0.59917873 -0.24046476 0.038836569 -0.49103978 -0.076412931 0.09792538 -0.16538464 -0.13330644 -0.29425642 0.28034315 0.43534717 0.29123813 -0.3187193 0.20150693 0.20532952 -0.22976199 -0.54292858 -0.5454486 0.054832049 0.1379876 0.015075355 0.042012181 0.12491738 0.067943789 0.24608214 0.06844984 0.42839089 -0.087550506 0.15007892 -0.10256462 -0.17008534 0.082194455 -0.31959939 -0.11885244 0.049122829 -0.46513766 -0.13399646 0.27202144 0.18036705 -0.17317799 0.033125836 -0.10657304 0.18406175 -0.11906518 0.65419245 0.33176854 0.055200502 -0.37528089 -0.27764645 0.3588495 -0.23637363 -0.27306873 0.047653254 0.094758764 -0.25456354 0.14572531 0.11713461 0.29191187 -0.11557262 0.20650506 -0.34117204 -0.39985019 0.31647155 -0.13476419
0 -0.57568401 -0.20622838 0.023266001 -0.46179026 -0.095594533 0.13978755 -0.1373387 -0.054125916 -0.30732498 0.28084463 0.47778982 0.27113727 -0.27607623 0.26025182 0.14617303 -0.24656205 -0.49855968 -0.46755284 0.038502712 0.1609024 0.051309545 0.06762363 0.15416446 0.040008839 0.18184288 0.14217176 0.53424883 -0.097539298 0.22890083 -0.059815649 -0.14096652 0.040999241 -0.19487779 -0.015144989 -0.016534444 -0.43203768 -0.076406889 0.24774529 0.27530816 -0.10710645 0.062613286 -0.13640015 0.23181696 -0.083404981 0.70094538 0.34854412 0.073493257 -0.29615653 -0.26543164 0.29434907 -0.25153056 -0.31347963 0.031986795 0.0079363212 -0.2476642 0.15580274 0.073428236 0.28630704 -0.097971402 0.14399828 -0.31670856 -0.25487769 0.3035973 -0.11382629
23 -0.37257659 -0.20754421 0.058526076 -0.36114696 -0.058132648 0.092446722 -0.23740973 -0.11545443 -0.41425955 0.28468153 0.44592264 0.34039968 -0.24132726 0.22437598 0.18029816 -0.18328264 -0.45722595 -0.38820648 0.04293688 0.22798134 0.06832657 0.097614922 0.12332073 0.09074679 0.22545846 0.22418171 0.55114859 -0.062623538 0.27160981 -0.057758432 -0.1117802 0.084897101 -0.30007017 -0.081044853 -0.0084817242 -0.43084311 -0.1849307 0.27483287 0.14917155 -0.12027495 0.11109304 -0.11639623 0.20295385 -0.15486637 0.66413122 0.32444987 0.08800552 -0.36376041 -0.22234501 0.39676559 -0.37429804 -0.41482055 -0.0014715969 0.059701279 -0.27443513 0.18632899 0.13562441 0.39839771 -0.17813514 0.2546235 -0.34428787 -0.31053171 0.28669035 -0.20648986
1 -0.66683489 -0.28261831 0.070149563 -0.56574512 -0.065394215 0.049669825 -0.10919469 -0.13294578 -0.30375329 0.24928503 0.4118301 0.2813094 -0.24608326 0.21542229 0.20693117 -0.21906142 -0.43272278 -0.3773329 0.0034717247 0.14619198 0.0037748753 0.05435589 0.11234023 0.04449657 0.18757218 0.18003461 0.48959693 -0.080236077 0.19073394 -0.069676638 -0.14707974 0.052823547 -0.20658903 -0.052689012 0.005203166 -0.33284813 -0.13694993 0.25672999 0.17775522 -0.11128656 0.077057853 -0.071613699 0.18272486 -0.15127438 0.63392735 0.30999789 0.040215414 -0.35323438 -0.26930931 0.2988835 -0.3074812 -0.31147459 0.038968023 0.081455335 -0.31889823 0.115022 0.11378418 0.43630937 -0.12117859 0.24470276 -0.38059989 -0.3059006 0.312875 -0.18880831
18 -0.66385019 0.36225909 -0.10119069 -0.39477932 0.0055971621 0.078901358 1.0099738 0.34469408 0.62123448 0.67300564 0.27189964 -0.38788617 -0.10975035 0.59934217 0.41961879 0.52339208 -0.581554 -0.068078555 -0.4007563 0.50379092 -0.40995938 -0.12181342 0.32416189 0.081560351 -0.54817754 -0.015471953 0.41311246 0.21097468 0.29027596 0.41651723 0.28184941 0.013004827 0.35176185 0.18519057 -0.40952817 -0.77828044 0.16841057 -0.17883787 0.66327524 0.30884728 0.3011241 -0.29430002 0.25857893 -0.034171447 0.47392738 0.28462958 -0.17413139 0.50756305 -0.23038566 0.17076069 0.13859628 0.11613699 -0.37634218 -0.71897751 -0.38796216 0.98647064 -0.66177517 -0.17169036 -0.086744815 -0.24329273 -0.0782791 -0.20419541 0.40108362 -0.071068764
11 -0.50184727 0.31147015 -0.13401185 -0.31843171 0.025755271 0.094119966 0.90004921 0.29407784 0.53557462 0.67499918 0.25206882 -0.31305739 -0.10531361 0.49087015 0.38995811 0.45986128 -0.52677822 -0.084993824 -0.40757799 0.47170886 -0.44292155 -0.089536138 0.23778898 0.088196412 -0.44274524 -0.017980417 0.5281136 0.21758404 0.32092467 0.34336066 0.19586284 0.11467825 0.42502704 0.2563456 -0.47746265 -0.83096761 0.18951359 -0.21276665 0.74608058 0.26970774 0.42340496 -0.29026401 0.31399763 -0.051715497 0.50092494 0.35134673 -0.19300364 0.6960271 -0.19975904 0.31532669 0.1653717 0.16525289 -0.37036896 -0.60964638 -0.48272163 1.0936354 -0.70335078 -0.16784205 -0.089361526 -0.36945519 -0.037914019 -0.23085123 0.48175853 -0.05677719
15 -0.38312116 0.07268019 0.53320336 -0.33381039 -0.052710366 -0.1278948 0.17059065 -0.059371132 -0.034366127 0.63822883 -0.081729412 -0.18901384 -0.08357697 0.092996851 0.66253853 0.80332553 -0.60757709 0.13721322 -0.043315854 0.56916207 -0.77601987 -0.0043824376 0.20755123 0.31881666 -0.44006982 0.16160153 0.081892461 0.24729444 0.14436898 0.14765289 -0.16706029 0.19044536 0.077192731 0.053404465 -0.05763169 -0.34162125 0.19795476 -0.17300227 0.15470526 0.031360123 0.57716566 0.02440238 -0.22948524 -0.36234382 -0.0037756921 0.20044842 -0.12103307 0.13975519 -0.034367494 0.70189714 -0.023522755 0.23061566 -0.59070605 -0.67005283 -0.042393941 0.4101975 -0.60330981 -0.1022099 -0.42795897 0.062641747 0.34716651 -0.76705629 0.10592782 -0.2518692
14 -0.305379 -0.072462037 0.37141567 -0.29662654 -0.04832286 -0.1109695 0.15170802 -0.056154974 0.0027122633 0.70738041 -0.11771231 -0.08683034 -0.049829993 -0.056977343 0.6805644 0.65347666 -0.60641998 -0.031168934 -0.073157534 0.7238428 -0.73584384 0.0020846524 0.18333547 0.3244887 -0.33504093 0.18856892 0.058674701 0.30393776 0.069098629 0.090460949 -0.25211591 0.26160055 0.0011179043 -0.012772112 -0.027181003 -0.20960011 0.12302978 -0.1798773 0.034179375 0.12046384 0.66622251 0.035551134 -0.25317389 -0.41935468 0.032181494 0.21614814 -0.071049862 0.15771674 0.10793924 0.62504202 -0.10717908 0.14103091 -0.70926636 -0.70549506 0.12656534 0.4417561 -0.69823736 -0.062810823 -0.44274816 0.017605925 0.37281254 -0.70969671 0.079461783 -0.28569549
10 -0.078975275 0.35981175 -0.15444222 -0.49758983 0.015710901 0.30072227 0.68035585 0.22756952 0.61427128 1.5008676 0.26291466 0.077247381 -0.23661485 -0.12519518 0.33561838 0.065161049 -0.030925449 -0.60606408 0.10801033 0.68515414 0.055668704 -0.37646672 0.30929485 0.25891396 0.17455594 -0.22236073 0.071024589 0.72691125 -0.088816941 0.14392863 -0.22040227 0.46728081 0.019218946 0.18656941 -0.046211496 -0.026676666 0.51904583 0.19557241 0.64417696 0.021740967 0.28675973 -0.034850184 -0.39693442 0.41985238 -0.13810441 0.40093127 0.70202196 0.13998051 -0.21290974 0.59718269 0.55264431 -0.088634782 -0.26703516 -0.65946227 -0.29384711 0.77059668 0.24453248 0.1860017 -0.26310262 0.28175288 0.46861368 -0.85099131 0.66920865 -0.29919869
19 -0.11438746 0.23794907 -0.11040544 -0.49939308 -0.025823811 0.27625909 0.57495862 0.23069172 0.55162811 1.632808 0.21076842 0.040367376 -0.19753905 -0.14555006 0.3155573 0.052152149 -0.14666371 -0.69433588 -0.013855834 0.85632664 0.0040357071 -0.34496993 0.34514943 0.26703542 0.12331469 -0.30716753 0.068363167 0.74541098 -0.15607189 0.17850354 -0.20271236 0.50683528 -0.059623241 0.20935422 -0.039268658 -0.086780719 0.4984051 0.14087498 0.64930254 0.11107484 0.4161633 0.081312664 -0.544254 0.32412928 -0.028746264 0.37150344 0.6488837 0.12883772 -0.15287244 0.60868663 0.54816443 -0.085740253 -0.23638386 -0.53819484 -0.25812164 0.63147092 0.13799481 0.41609246 -0.23383214 0.17546509 0.5121696 -0.90211236 0.61583441 -0.29219401
1008 -0.28974989 0.21577324 0.16302182 -0.67088014 0.067284137 -0.0096057644 0.8336364 -0.21486384 0.11959767 0.79540533 0.37965891 -0.053842954 0.17035824 0.46231392 0.74644214 0.68855864 -0.64841986 -0.0021407988 0.28429434 0.72130144 -0.52671921 -0.24650244 -0.033225238 0.5464142 -0.0082083633 0.21745007 0.30138698 0.38715926 0.28929618 0.32356399 0.052532841 0.57462788 0.14085944 -0.1448182 -0.29914379 -0.09550827 -0.1644149 -0.14331792 0.31522873 -0.034904521 0.3368628 -0.16921787 0.35510948 -0.085345834 -0.17732322 0.13328092 -0.089145489 0.45718923 0.2156744 0.18651088 -0.064533599 -0.20198581 -0.36869016 -0.089544386 -0.14457634 0.56674564 -0.091339432 0.0091352053 0.028413625 -0.20980315 0.26811019 -0.016425293 0.13120343 -0.21614115
1006 -0.23498102 0.049973343 0.14805014 -0.66788244 0.057286911 0.017886709 0.63405037 -0.20516305 0.018215997 0.70963806 0.34481731 0.0096027097 0.0974859 0.44100833 0.64977139 0.73203635 -0.59937477 0.06678573 0.35368195 0.68378544 -0.4462302 -0.22413565 -0.020846989 0.59582353 0.048320796 0.22615673 0.25284436 0.36277938 0.18085644 0.30095369 0.07195773 0.61585045 0.078460418 -0.21934579 -0.24914844 -0.038641382 -0.23022997 -0.17869066 0.29652527 0.039053667 0.5143863 -0.21119717 0.32821387 -0.087184317 -0.23557091 0.19766451 -0.1066085 0.46807006 0.30502412 0.29966104 -0.098914646 -0.28005132 -0.59305662 -0.16224231 -0.15459107 0.67805684 -0.18148717 -0.069054894 0.090099111 -0.28113246 0.24584983 -0.031618491 0.094118923 -0.24344942
1005 -0.10507262 0.26122206 0.05422825 -0.11020789 0.36964321 0.10633757 0.56554359 -0.59835857 0.24020049 0.82630944 0.28353497 -0.13932034 -0.041961692 0.37156916 0.73485136 0.2524839 -0.53757393 -0.060366437 0.0056763454 0.29071873 -0.39853099 -0.56649274 0.0095991893 -0.0080195796 -0.001894683 -0.59285498 0.23161706 0.084055364 -0.2425833 0.012581951 -0.28856173 0.80057418 0.61642629 0.23274043 0.24923658 0.083339535 0.16753688 -0.12441126 0.4432914 -0.23696665 0.48385394 -0.46891174 0.093838207 -0.42637467 -0.084773324 -0.0078865336 -0.22656912 0.10804678 -0.21196811 0.35124284 -0.052428119 0.1921439 0.072475649 -0.30344471 -0.021814011 0.27244967 -0.43576685 -0.044167768 -0.48421177 -0.0083284546 0.39776474 -0.71790445 0.36173171 -0.49228501
1009 -0.10200671 0.32756045 0.019988662 -0.092308722 0.28877294 0.11953223 0.67014962 -0.55166739 0.34700513 0.78280574 0.30840737 -0.19719879 -0.043917336 0.33102149 0.71740282 0.26412281 -0.49580958 -0.067926183 -0.0043850453 0.27601334 -0.44467261 -0.53329051 0.041698694 -0.018760605 0.060564362 -0.49849728 0.24603072 0.030017696 -0.20426145 0.0067954618 -0.32813117 0.73010528 0.62428063 0.19720632 0.27062902 0.039845552 0.086018942 -0.13545358 0.3515695 -0.21817321 0.43939808 -0.44477454 0.1841827 -0.46740806 -0.060591936 0.034399059 -0.22602728 0.17365471 -0.1786593 0.35107437 -0.11689188 0.21690688 0.12247976 -0.2541388 0.033036564 0.27103662 -0.39131761 -0.054685287 -0.53003067 0.03371191 0.32950458 -0.65304053 0.35981888 -0.48759693
1010 -0.25448057 0.26312667 0.52978885 -0.071340695 0.77534914 -0.46871302 0.20321769 -0.50042462 -0.043939658 0.65668392 -0.36086217 -0.11785001 0.1427864 0.42138681 0.41656619 -0.13766539 -0.18259019 -0.3082459 0.047304489 0.53427976 -0.28602791 0.089282267 0.0083199143 0.118494 0.29402921 0.022103416 0.097655088 -0.18188187 0.37046963 0.20373981 -0.0399886 -0.052291859 0.19403191 -0.19958307 0.42580584 -0.29700392 0.07290177 -0.34641024 -0.21865843 0.21479699 0.0027402251 -0.28886655 0.20118259 -0.29651153 0.071125329 0.042923883 -0.056773204 -0.23330493 -0.023910254 0.20938659 -0.11313386 -0.093283474 -0.55381614 -0.39995471 0.084199272 0.24832091 0.056877214 -0.28235334 -0.3368746 0.016738322 -0.11756006 -0.22381034 -0.023135869 -0.4154658
1004 -0.38933799 0.1937319 0.62584352 -0.12299933 0.73317343 -0.53386688 0.20461938 -0.58189863 -0.17903514 0.45786324 -0.39715877 -0.036436118 0.26922256 0.43204048 0.52644449 -0.14858641 -0.14955337 -0.3374804 -0.016339164 0.57592285 -0.41883337 0.15890147 -0.086842969 0.1460416 0.29185313 0.13218018 0.11706913 -0.22826034 0.42832342 0.11800195 -0.067847602 -0.028145526 0.22716948 -0.26855308 0.34514368 -0.31046608 -0.093983546 -0.35098293 -0.35695747 0.16036335 0.10567667 -0.35009366 0.39486924 -0.44040078 0.072821029 -0.0065177619 -0.21406721 -0.078899316 0.071576953 0.37353942 -0.41900578 -0.047431357 -0.50804079 -0.33833572 0.10013574 0.31096733 -0.092205085 -0.40146917 -0.37821895 -0.00079326163 -0.15006563 -0.13172761 -0.12155277 -0.40957108
1007 -0.15158319 0.10086435 0.10065272 -0.35431549 0.11102667 -0.050109599 0.43903154 -0.10967178 0.060012426 0.6394316 0.074283548 -0.020938028 0.14095677 0.31288221 0.51177287 0.52915472 -0.38301072 0.039106779 -0.058299571 0.58235961 -0.46729356 -0.12999731 -0.029401844 0.32344702 -0.22115335 0.0078302836 0.25201079 0.38007566 0.16025971 0.19712998 0.09121713 0.48981464 0.18764928 0.045494877 -0.17685845 -0.16889924 -0.031829517 -0.14049599 0.1951739 0.067362063 0.41321942 -0.17665884 0.13369007 -0.12227383 -0.07135281 0.063807897 -0.087495439 0.34504753 0.18571368 0.36973944 -0.086395547 -0.0638384 -0.31019121 -0.25680143 -0.10385592 0.56125772 -0.23481922 -0.02610353 -0.19613025 -0.15121533 0.29076836 -0.14930385 0.095407143 -0.16895433
20 -0.4408282 -0.24848305 0.55628806 -0.48111972 -0.036450945 0.10198997 -0.18111195 -0.4032284 -0.61836427 0.66569519 0.61061007 0.25744894 0.16272791 0.12561692 0.50742263 -0.25503233 -0.43413708 -0.15382074 0.6392324 0.24519973 0.12420497 -0.025485976 0.15921088 0.098680705 0.23596187 0.50779629 0.082993507 -0.27512452 0.10013471 -0.20094217 -0.68492401 0.22531173 -0.16912608 -0.14150076 0.15177818 0.053744838 -0.17984819 0.2590079 0.41143492 0.062016074 0.23606561 0.15963133 0.21455583 -0.43256104 -0.092022456 0.38453698 0.14849976 -0.14864542 -0.15373537 -0.010663304 -0.47636178 -0.38655779 -0.11401832 -0.19003566 -0.11787013 -0.26478586 0.15067118 0.45773092 -0.079752594 0.092796825 0.08271236 -0.41956171 0.14552584 -0.55649352
9 -0.46430516 -0.20992489 0.61213785 -0.42574692 0.017567649 0.11290499 -0.18774758 -0.47622308 -0.64685589 0.64770031 0.6092369 0.2370349 0.14558883 0.12782261 0.55130202 -0.34233332 -0.45041898 -0.17430954 0.65704948 0.21552062 0.13127722 -0.064264178 0.164395 0.023808438 0.26018283 0.47125131 0.064095184 -0.33421615 0.076969832 -0.24654117 -0.74947798 0.20214793 -0.088066004 -0.11476279 0.22860651 0.10755407 -0.14290188 0.24655624 0.40063331 0.026957957 0.20739089 0.14546448 0.20768565 -0.47118405 -0.094617531 0.38329998 0.11802477 -0.169846 -0.18604732 -0.010627476 -0.50537586 -0.3518075 -0.069029048 -0.19546168 -0.059813257 -0.34894046 0.1132278 0.45435673 -0.13956957 0.11935841 0.088021696 -0.45065382 0.1447749 -0.59400332
